net 
{ 
}
node Age 
{
  states = ( "Adolescent" "Adult" "Senior" );
}
node RiskAversion 
{
  states = ( "Adventurous" "Cautious" "Normal" "Psychopath" );
}
node VehicleYear 
{
  states = ( "Current" "Older" );
}
node Accident 
{
  states = ( "Mild" "Moderate" "None" "Severe" );
}
node MakeModel 
{
  states = ( "Economy" "FamilySedan" "Luxury" "SportsCar" "SuperLuxury" );
}
node DrivQuality 
{
  states = ( "Excellent" "Normal" "Poor" );
}
node Airbag 
{
  states = ( "False" "True" );
}
node DrivHist 
{
  states = ( "Many" "One" "Zero" );
}
node SocioEcon 
{
  states = ( "Middle" "Prole" "UpperMiddle" "Wealthy" );
}
node Antilock 
{
  states = ( "False" "True" );
}
node MedCost 
{
  states = ( "HundredThou" "Million" "TenThou" "Thousand" );
}
node CarValue 
{
  states = ( "FiftyThou" "FiveThou" "Million" "TenThou" "TwentyThou" );
}
potential ( Age ) 
{
  data = ( 0.2130000 0.5893333 0.1976667 );
}
potential ( RiskAversion | Age SocioEcon ) 
{
  data = (((0.43542435 0.09594096 0.44280443 0.02583026)(0.58333333 0.07916667 0.30416667 0.03333333)(0.47863248 0.05982906 0.46153846 0.00000000)(0.63636364 0.09090909 0.27272727 0.00000000))((0.150645624 0.189383070 0.651362984 0.008608321)(0.30428769 0.21161826 0.47164592 0.01244813)(0.313253012 0.225903614 0.457831325 0.003012048)(0.5000 0.0625 0.4375 0.0000))((0.01709402 0.61538462 0.35042735 0.01709402)(0.09698997 0.48494983 0.40802676 0.01003344)(0.064705882 0.511764706 0.417647059 0.005882353)(0.1428571 0.4285714 0.4285714 0.0000000))) ;
}
potential ( VehicleYear | MakeModel SocioEcon CarValue ) 
{
  data = ((((0.5 0.5)(0.008196721 0.991803279)(0.5 0.5)(0.6555556 0.3444444)(1.0 0.0))((0.5 0.5)(0.009771987 0.990228013)(0.5 0.5)(0.4576923 0.5423077)(0.7222222 0.2777778))((0.5 0.5)(0.375 0.625)(0.5 0.5)(1.0 0.0)(1.0 0.0))((0.5 0.5)(0.5 0.5)(0.5 0.5)(0.5 0.5)(0.5 0.5)))(((0.5 0.5)(0.0 1.0)(0.5 0.5)(0.1481481 0.8518519)(0.7157895 0.2842105))((0.5 0.5)(0.0 1.0)(0.5 0.5)(0.0877193 0.9122807)(0.469697 0.530303))((0.5 0.5)(0.0 1.0)(0.5 0.5)(0.6206897 0.3793103)(0.95833333 0.04166667))((0.5 0.5)(0.0 1.0)(0.5 0.5)(1.0 0.0)(1.0 0.0)))(((0.5 0.5)(0.5 0.5)(0.5 0.5)(0.5 0.5)(0.5 0.5))((0.5 0.5)(0.5 0.5)(0.5 0.5)(0.5 0.5)(0.5 0.5))((0.90513834 0.09486166)(0.0 1.0)(0.5 0.5)(0.0 1.0)(0.0 1.0))((1.0 0.0)(0.5 0.5)(0.5 0.5)(0.5 0.5)(0.0 1.0)))(((0.75 0.25)(0.0 1.0)(0.0 1.0)(0.04545455 0.95454545)(0.7169811 0.2830189))((0.1666667 0.8333333)(0.0 1.0)(0.0 1.0)(0.03921569 0.96078431)(0.3529412 0.6470588))((1.0 0.0)(0.0 1.0)(1.0 0.0)(0.3333333 0.6666667)(0.93333333 0.06666667))((1.0 0.0)(0.5 0.5)(0.5 0.5)(1.0 0.0)(1.0 0.0)))(((0.5 0.5)(0.5 0.5)(0.5 0.5)(0.5 0.5)(0.5 0.5))((0.5 0.5)(0.5 0.5)(0.5 0.5)(0.5 0.5)(0.5 0.5))((0.5 0.5)(0.5 0.5)(0.5 0.5)(0.5 0.5)(0.5 0.5))((0.5 0.5)(0.5 0.5)(1.0 0.0)(0.5 0.5)(0.5 0.5)))) ;
}
potential ( Accident | DrivQuality Antilock ) 
{
  data = (((0.008474576 0.006355932 0.976694915 0.008474576)(0.0 0.0 1.0 0.0))((0.021484375 0.014648438 0.958007812 0.005859375)(0.01209677 0.01209677 0.97580645 0.00000000))((0.1975983 0.1855895 0.2620087 0.3548035)(0.2544643 0.1875000 0.4062500 0.1517857))) ;
}
potential ( MakeModel | SocioEcon ) 
{
  data = ((0.1990783 0.6709677 0.0000000 0.1299539 0.0000000)(0.70681458 0.19492868 0.00000000 0.09825674 0.00000000)(0.04361874 0.31825525 0.46688207 0.17124394 0.00000000)(0.0000000 0.1764706 0.4411765 0.2058824 0.1764706)) ;
}
potential ( DrivQuality | Age RiskAversion ) 
{
  data = (((0.2118380 0.1838006 0.6043614)(0.2075472 0.3396226 0.4528302)(0.048 0.424 0.528)(0.26666667 0.06666667 0.66666667))((0.3135011 0.2128146 0.4736842)(0.2049861 0.4875346 0.3074792)(0.1069182 0.5691824 0.3238994)(0.250 0.125 0.625))((0.1860465 0.2093023 0.6046512)(0.4104235 0.4429967 0.1465798)(0.1645570 0.5400844 0.2953586)(0.5000000 0.1666667 0.3333333))) ;
}
potential ( Airbag | VehicleYear MakeModel ) 
{
  data = (((0.0 1.0)(0.0 1.0)(0.0 1.0)(0.0 1.0)(0.0 1.0))((0.94950604 0.05049396)(0.8055556 0.1944444)(0.516129 0.483871)(0.94196429 0.05803571)(0.5 0.5))) ;
}
potential ( DrivHist | RiskAversion DrivQuality ) 
{
  data = (((0.1690141 0.2816901 0.5492958)(0.2236025 0.3043478 0.4720497)(0.7330211 0.1030445 0.1639344))((0.009478673 0.023696682 0.966824645)(0.01212121 0.03333333 0.95454545)(0.4444444 0.2722222 0.2833333))((0.0 0.0 1.0)(0.02960103 0.08236808 0.88803089)(0.80821918 0.16634051 0.02544031))((0.2727273 0.5454545 0.1818182)(0.50 0.25 0.25)(0.77272727 0.09090909 0.13636364))) ;
}
potential ( SocioEcon | Age ) 
{
  data = ((0.4241002 0.3755869 0.1830986 0.0172144)(0.394230769 0.408936652 0.187782805 0.009049774)(0.19730185 0.50421585 0.28667791 0.01180438)) ;
}
potential ( Antilock | VehicleYear MakeModel ) 
{
  data = (((1.0 0.0)(0.608076 0.391924)(0.004132231 0.995867769)(0.1168831 0.8831169)(0.0 1.0))((1.0 0.0)(1.0 0.0)(0.7258065 0.2741935)(0.8973214 0.1026786)(0.5 0.5))) ;
}
potential ( MedCost | Accident ) 
{
  data = ((0.00000000 0.00000000 0.01498127 0.98501873)(0.09012876 0.03862661 0.11158798 0.75965665)(0.0 0.0 0.0 1.0)(0.09485095 0.11653117 0.18157182 0.60704607)) ;
}
potential ( CarValue | MakeModel SocioEcon ) 
{
  data = (((0.00000000 0.56481481 0.00000000 0.41666667 0.01851852)(0.00000000 0.68834081 0.00000000 0.29147982 0.02017937)(0.00000000 0.29629630 0.00000000 0.66666667 0.03703704)(0.2 0.2 0.2 0.2 0.2))((0.0000000 0.4230769 0.0000000 0.1854396 0.3914835)(0.0000000 0.5000000 0.0000000 0.2317073 0.2682927)(0.0000000 0.1218274 0.0000000 0.1472081 0.7309645)(0.0000000 0.1666667 0.0000000 0.1666667 0.6666667))((0.2 0.2 0.2 0.2 0.2)(0.2 0.2 0.2 0.2 0.2)(0.87543253 0.01384083 0.00000000 0.03460208 0.07612457)(0.8666667 0.0000000 0.0000000 0.0000000 0.1333333))((0.05673759 0.23404255 0.02127660 0.31205674 0.37588652)(0.048387097 0.258064516 0.008064516 0.411290323 0.274193548)(0.07547170 0.02830189 0.01886792 0.16981132 0.70754717)(0.1428571 0.0000000 0.0000000 0.1428571 0.7142857))((0.2 0.2 0.2 0.2 0.2)(0.2 0.2 0.2 0.2 0.2)(0.2 0.2 0.2 0.2 0.2)(0.0 0.0 1.0 0.0 0.0))) ;
}
