net 
{ 
}
node job 
{
  states = ( "admin." "blue-collar" "entrepreneur" "housemaid" "management" "retired" "self-employed" "services" "student" "technician" "unemployed" "unknown" );
}
node marital 
{
  states = ( "divorced" "married" "single" );
}
node education 
{
  states = ( "primary" "secondary" "tertiary" "unknown" );
}
node default 
{
  states = ( "no" "yes" );
}
node housing 
{
  states = ( "no" "yes" );
}
node loan 
{
  states = ( "no" "yes" );
}
node contact 
{
  states = ( "cellular" "telephone" "unknown" );
}
node month 
{
  states = ( "apr" "aug" "dec" "feb" "jan" "jul" "jun" "mar" "may" "nov" "oct" "sep" );
}
node poutcome 
{
  states = ( "failure" "other" "success" "unknown" );
}
node y 
{
  states = ( "no" "yes" );
}
node age 
{
  states = ( "_18_27]" "_27_30]" "_30_31]" "_31_33]" "_33_35]" "_35_36]" "_36_38]" "_38_40]" "_40_42]" "_42_45]" "_45_48]" "_48_51]" "_51_54]" "_54_58]" "_58_95]" );
}
node balance 
{
  states = ( "_-8.02e+03_-69]" "_-69_0]" "_0_23]" "_23_92]" "_92_175]" "_175_270]" "_270_380]" "_380_518]" "_518_695]" "_695_949]" "_949_1.31e+03]" "_1.31e+03_1.84e+03]" "_1.84e+03_2.8e+03]" "_2.8e+03_4.85e+03]" "_4.85e+03_1.02e+05]" );
}
node duration 
{
  states = ( "_0_90]" "_90_147]" "_147_223]" "_223_370]" "_370_4.92e+03]" );
}
node campaign 
{
  states = ( "_0_1]" "_1_3]" "_3_58]" );
}
node previous 
{
  states = ( "FALSE" "TRUE" );
}
potential ( job | housing age ) 
{
  data = (((0.120846269 0.112567552 0.015292630 0.008048752 0.148786938 0.005979073 0.029780384 0.078417845 0.312291595 0.120846269 0.040128780 0.007013913)(0.120620936 0.114956996 0.017726033 0.015838053 0.257499476 0.002622194 0.054541640 0.091357248 0.080973359 0.176316342 0.057373610 0.010174114)(0.104606719 0.091933213 0.023134178 0.021323677 0.271172802 0.005029169 0.046670690 0.102796218 0.032186683 0.249446791 0.041239187 0.010460672)(0.115315919 0.101250279 0.024893950 0.020875195 0.319267694 0.002790802 0.030922081 0.069100246 0.019870507 0.256977004 0.030922081 0.007814244)(0.115861899 0.099275095 0.020764222 0.027398943 0.299422533 0.007494778 0.049514682 0.064995700 0.010812139 0.249662121 0.043985748 0.010812139)(0.12755219 0.13168158 0.04496444 0.02638220 0.26795136 0.00573526 0.04909383 0.07593485 0.01399404 0.19568708 0.04909383 0.01192934)(0.101168385 0.140756014 0.041786942 0.038075601 0.259518900 0.005910653 0.057869416 0.085085911 0.019518900 0.200137457 0.045498282 0.004673540)(0.104906937 0.156129826 0.042608829 0.039840025 0.248884787 0.016305184 0.049530841 0.082756499 0.005229965 0.207352715 0.034302415 0.012151977)(0.089846359 0.115397462 0.044756179 0.049265197 0.264195057 0.010187041 0.043253173 0.068804275 0.007181029 0.246158985 0.041750167 0.019205077)(0.109839560 0.170425222 0.044205094 0.053292943 0.241108493 0.014922024 0.053292943 0.068439358 0.002804892 0.187591159 0.032087961 0.021990351)(0.115637985 0.187696362 0.033546164 0.062734367 0.218708827 0.018952062 0.044491740 0.080064863 0.004357961 0.164893078 0.042667477 0.026249113)(0.11607871 0.18314123 0.04377692 0.05320759 0.24601234 0.03329840 0.03958552 0.07940389 0.00291070 0.14751426 0.04063337 0.01443707)(0.091795957 0.159496944 0.041020216 0.064292431 0.234602727 0.071697226 0.038904560 0.071697226 0.002938411 0.151034321 0.050540668 0.021979314)(0.081245651 0.141527488 0.042884482 0.066370912 0.200243563 0.205723730 0.028009743 0.063239388 0.002174669 0.103949200 0.042884482 0.021746695)(0.043651744 0.070944059 0.015641210 0.064480089 0.129119783 0.544250259 0.019232304 0.013486553 0.001995052 0.050833932 0.024978054 0.021386960))((0.138524264 0.279932379 0.020385839 0.009645982 0.096459825 0.002486078 0.026650756 0.163583930 0.084824980 0.155529037 0.018595863 0.003381066)(0.141127123 0.265340640 0.024829173 0.011433597 0.178269400 0.001691361 0.032744740 0.118598200 0.026046952 0.177051620 0.020566944 0.002300250)(0.134416925 0.256320949 0.032249742 0.018317853 0.207559340 0.003224974 0.033410733 0.111197110 0.015995872 0.154153767 0.029927761 0.003224974)(0.128096522 0.266140418 0.027595944 0.015466564 0.205493518 0.002182005 0.030483892 0.114811963 0.007957900 0.181234758 0.018354512 0.002182005)(0.121911468 0.275050525 0.035073994 0.012777886 0.211682639 0.002216572 0.029793337 0.094334702 0.006323750 0.188799791 0.020405502 0.001629832)(0.127259581 0.287346349 0.036153290 0.016630513 0.191033984 0.004916847 0.040057845 0.109038322 0.006218366 0.151988431 0.025741142 0.003615329)(0.132329569 0.276871602 0.041237976 0.019406106 0.190296947 0.002091175 0.026181514 0.112756169 0.002843998 0.171476370 0.020158929 0.004349645)(0.122207506 0.313730684 0.031611479 0.023664459 0.175452539 0.007770419 0.031611479 0.119028698 0.003796909 0.139690949 0.029227373 0.002207506)(0.131865892 0.328136146 0.039233670 0.020890655 0.170386222 0.005299093 0.030979313 0.098848466 0.003464792 0.137368796 0.030062162 0.003464792)(0.112901951 0.301335230 0.047483606 0.014774433 0.184008849 0.006241605 0.029706882 0.100102710 0.001975192 0.166943193 0.030417951 0.004108399)(0.127391009 0.309156229 0.042625498 0.014661618 0.184192640 0.005922905 0.024274201 0.108165841 0.002427420 0.151859404 0.026021944 0.003301291)(0.113079323 0.297571301 0.057932264 0.028854724 0.170231729 0.019830660 0.037878788 0.089015152 0.002785205 0.157196970 0.020833333 0.004790553)(0.118616352 0.258993711 0.031446541 0.025786164 0.180880503 0.052955975 0.049559748 0.092578616 0.003144654 0.163899371 0.017861635 0.004276730)(0.086865515 0.204604919 0.042124542 0.025641026 0.175170068 0.139848247 0.030350602 0.089220304 0.003270539 0.163396128 0.031527996 0.007980115)(0.098838856 0.149815916 0.022373265 0.024922118 0.162560181 0.343528745 0.030019824 0.042764089 0.007080147 0.091192297 0.017275559 0.009629000))) ;
}
potential ( marital ) 
{
  data = ( 0.1214732 0.5945120 0.2840148 );
}
potential ( education | job ) 
{
  data = ((0.04378358 0.80530681 0.11334716 0.03756245)(0.38894505 0.54513977 0.01786888 0.04804630)(0.12705696 0.36534810 0.43085443 0.07674051)(0.49518697 0.29303961 0.15420215 0.05757127)(0.03407357 0.11916539 0.81979161 0.02696943)(0.34309579 0.42429689 0.16990907 0.06269824)(0.10027141 0.36896864 0.49200844 0.03875151)(0.09041987 0.80715553 0.05777646 0.04464814)(0.06745079 0.52256361 0.24747960 0.16250600)(0.02450821 0.69061222 0.24946439 0.03541518)(0.20162125 0.52759572 0.23163160 0.03915143)(0.2027845 0.2318402 0.1664649 0.3989104)) ;
}
potential ( default | balance ) 
{
  data = ((0.8755441 0.1244559)(0.93471948 0.06528052)(0.94231764 0.05768236)(0.95856935 0.04143065)(0.97409326 0.02590674)(0.97985378 0.02014622)(0.97754805 0.02245195)(0.97958528 0.02041472)(0.98094007 0.01905993)(0.98043654 0.01956346)(0.97952604 0.02047396)(0.98289495 0.01710505)(0.98290323 0.01709677)(0.98385534 0.01614466)(0.98337905 0.01662095)) ;
}
potential ( housing | month poutcome ) 
{
  data = (((0.1658933 0.8341067)(0.2109723 0.7890277)(0.5136571 0.4863429)(0.355781 0.644219))((0.6041466 0.3958534)(0.6737194 0.3262806)(0.6983723 0.3016277)(0.8311509 0.1688491))((0.6149826 0.3850174)(0.6628959 0.3371041)(0.7209632 0.2790368)(0.7829077 0.2170923))((0.3457619 0.6542381)(0.4197145 0.5802855)(0.6872456 0.3127544)(0.6461678 0.3538322))((0.330888 0.669112)(0.4692533 0.5307467)(0.7387268 0.2612732)(0.7224593 0.2775407))((0.6610338 0.3389662)(0.6393189 0.3606811)(0.7382892 0.2617108)(0.5106895 0.4893105))((0.5591806 0.4408194)(0.5930788 0.4069212)(0.7014519 0.2985481)(0.575566 0.424434))((0.643167 0.356833)(0.6784387 0.3215613)(0.7463343 0.2536657)(0.7720984 0.2279016))((0.1370454 0.8629546)(0.1355483 0.8644517)(0.4676153 0.5323847)(0.118666 0.881334))((0.3524142 0.6475858)(0.3123138 0.6876862)(0.6152142 0.3847858)(0.4756141 0.5243859))((0.6682627 0.3317373)(0.6315068 0.3684932)(0.7575517 0.2424483)(0.781515 0.218485))((0.6464567 0.3535433)(0.6212938 0.3787062)(0.6717011 0.3282989)(0.8168483 0.1831517))) ;
}
potential ( loan | housing month ) 
{
  data = (((0.93519523 0.06480477)(0.91792499 0.08207501)(0.8596311 0.1403689)(0.8698048 0.1301952)(0.863758 0.136242)(0.6156254 0.3843746)(0.8860224 0.1139776)(0.90391254 0.09608746)(0.8959092 0.1040908)(0.8163803 0.1836197)(0.91660202 0.08339798)(0.91216879 0.08783121))((0.8311642 0.1688358)(0.798339 0.201661)(0.6370558 0.3629442)(0.8100663 0.1899337)(0.7521115 0.2478885)(0.7618583 0.2381417)(0.8119105 0.1880895)(0.7365931 0.2634069)(0.8479639 0.1520361)(0.7951094 0.2048906)(0.7063319 0.2936681)(0.735443 0.264557))) ;
}
potential ( contact | previous ) 
{
  data = ((0.5812202 0.0671013 0.3516785)(0.86598742 0.09865820 0.03535438)) ;
}
potential ( month | contact previous ) 
{
  data = (((0.077409489 0.248346523 0.004534159 0.072385977 0.038253622 0.252131361 0.018847727 0.012998433 0.139343197 0.112849333 0.012585541 0.010314639)(0.13672796 0.06497793 0.01637307 0.10895375 0.06112040 0.02891003 0.04028974 0.02138785 0.30453045 0.13827097 0.04125413 0.03720372))((0.06073250 0.09411219 0.01423935 0.08457514 0.04106232 0.33849924 0.03212133 0.01841182 0.12153123 0.12272336 0.05059938 0.02139215)(0.09462002 0.06245297 0.04044394 0.11493604 0.06922498 0.04721595 0.04382995 0.05398796 0.23852521 0.11155004 0.06245297 0.06075997))((0.002034524 0.005218996 0.001807061 0.002375717 0.002375717 0.021141355 0.344251523 0.002034524 0.605150757 0.004650340 0.005105264 0.003854222)(0.06561680 0.08451444 0.06561680 0.07506562 0.06561680 0.09868766 0.07979003 0.07034121 0.07506562 0.12230971 0.08923885 0.10813648))) ;
}
potential ( poutcome ) 
{
  data = ( 0.11371777 0.04733938 0.04004647 0.79889638 );
}
potential ( y | housing poutcome duration ) 
{
  data = ((((0.90625 0.09375)(0.8531915 0.1468085)(0.7476415 0.2523585)(0.6830709 0.3169291)(0.4903382 0.5096618))((0.8333333 0.1666667)(0.7806122 0.2193878)(0.6919192 0.3080808)(0.5495868 0.4504132)(0.4963768 0.5036232))((0.6388889 0.3611111)(0.5683761 0.4316239)(0.3712121 0.6287879)(0.2195652 0.7804348)(0.2014218 0.7985782))((0.98609432 0.01390568)(0.95171405 0.04828595)(0.90503697 0.09496303)(0.8536643 0.1463357)(0.6416405 0.3583595)))(((0.97184466 0.02815534)(0.93887776 0.06112224)(0.93867925 0.06132075)(0.892638 0.107362)(0.7137592 0.2862408))((0.94206009 0.05793991)(0.8892216 0.1107784)(0.8756906 0.1243094)(0.8506098 0.1493902)(0.6513514 0.3486486))((0.7156863 0.2843137)(0.625 0.375)(0.4879518 0.5120482)(0.4208333 0.5791667)(0.3440367 0.6559633))((0.99170354 0.00829646)(0.98576443 0.01423557)(0.98159851 0.01840149)(0.96398227 0.03601773)(0.7339874 0.2660126)))) ;
}
potential ( age | marital housing ) 
{
  data = (((0.01234087 0.01760197 0.02110938 0.04156924 0.04799948 0.03455443 0.04507664 0.05735256 0.06027540 0.08541180 0.09827228 0.08716550 0.10002598 0.14386854 0.14737594)(0.01660986 0.03608722 0.02488773 0.06822486 0.07650273 0.04193042 0.08234594 0.07406806 0.07747660 0.10571877 0.09208462 0.08575448 0.09403235 0.07942434 0.04485203))((0.01196652 0.03325725 0.02429273 0.05429896 0.05865671 0.03263471 0.06039981 0.05753614 0.05218233 0.08617279 0.09688040 0.09003251 0.08779138 0.11916719 0.13473058)(0.03032344 0.07035552 0.04090885 0.09248864 0.09845496 0.04504678 0.08026731 0.08238439 0.07199145 0.09470195 0.07968992 0.06881582 0.05890404 0.05928896 0.02637797))((0.20854141 0.18717424 0.07886478 0.11987993 0.08623277 0.04006004 0.06044481 0.03981444 0.03514804 0.03735844 0.03686724 0.02016646 0.01697367 0.01820166 0.01427207)(0.162402800 0.176991566 0.081424578 0.133225268 0.110813541 0.045269810 0.068738694 0.052881340 0.038715437 0.043366927 0.026875279 0.022435220 0.016515141 0.014823690 0.005520709))) ;
}
potential ( balance | housing loan ) 
{
  data = (((0.02305954 0.10588505 0.04305782 0.06503018 0.06288444 0.06099619 0.06116785 0.05816382 0.06365691 0.06545933 0.06726175 0.07215404 0.08013618 0.08296856 0.08811833)(0.11496378 0.10386808 0.05578672 0.09647095 0.07566651 0.06133457 0.07011866 0.06318385 0.06133457 0.05809832 0.05393743 0.05255047 0.05301279 0.04469102 0.03498228))((0.07786321 0.07900233 0.03578718 0.06483459 0.06718401 0.07060136 0.06988941 0.07430348 0.07124211 0.06988941 0.06910627 0.06718401 0.06084769 0.06198681 0.06027813)(0.14594652 0.09640993 0.05230638 0.05837861 0.06988388 0.06924470 0.06956429 0.06892511 0.06029615 0.06125493 0.06285288 0.05358474 0.05230638 0.04175988 0.03728561))) ;
}
potential ( duration | campaign ) 
{
  data = ((0.1767611 0.1946564 0.2077241 0.2168798 0.2039786)(0.1662958 0.2038263 0.2053731 0.2101764 0.2143284)(0.3193185 0.1939324 0.1701704 0.1513400 0.1652386)) ;
}
potential ( campaign | month previous ) 
{
  data = (((0.4916086 0.3951973 0.1131941)(0.4968607 0.3979737 0.1051655))((0.1347846 0.4437547 0.4214606)(0.51290780 0.40312057 0.08397163))((0.3964248 0.4437434 0.1598318)(0.4311594 0.3577899 0.2110507))((0.4370655 0.3827296 0.1802049)(0.4515245 0.3528606 0.1956149))((0.5589399 0.3808295 0.0602306)(0.52436472 0.38445441 0.09118087))((0.3019442 0.3920370 0.3060188)(0.4222595 0.4071588 0.1705817))((0.3737745 0.3821211 0.2441044)(0.5200883 0.3532009 0.1267108))((0.3992520 0.3908368 0.2099112)(0.4369274 0.4052149 0.1578576))((0.4117915 0.4088775 0.1793309)(0.4418411 0.3853787 0.1727802))((0.5257362 0.3720259 0.1022379)(0.4784281 0.3943391 0.1272328))((0.63290689 0.30028429 0.06680881)(0.5854965 0.3110836 0.1034199))((0.5230147 0.3682347 0.1087506)(0.5359823 0.3293598 0.1346578))) ;
}
potential ( previous | poutcome ) 
{
  data = ((0.03547106 0.96452894)(0.08520791 0.91479209)(0.1007252 0.8992748)(0.99474896 0.00525104)) ;
}
